SVM-light Version V6.20
0 # kernel type
3 # kernel parameter -d 
1 # kernel parameter -g 
1 # kernel parameter -s 
1 # kernel parameter -r 
empty# kernel parameter -u 
17 # highest feature index 
11 # number of training documents 
2 # number of support vectors plus 1 
0 # threshold b, each following line is a SV (starting with alpha*y)
1 1:0.59398967 2:-0.062826917 3:0.44700548 4:-0.083062291 5:0.78242821 6:0.5179649 7:0.34057724 8:0.22145389 9:-0.01775163 10:0.32248515 11:0.11908329 12:0.080550335 13:0.17707224 14:-0.063459001 15:-0.12233979 16:-0.0028108235 #
