SVM-light Version V6.20
0 # kernel type
3 # kernel parameter -d 
1 # kernel parameter -g 
1 # kernel parameter -s 
1 # kernel parameter -r 
empty# kernel parameter -u 
17 # highest feature index 
9 # number of training documents 
2 # number of support vectors plus 1 
0 # threshold b, each following line is a SV (starting with alpha*y)
1 1:0.027940402 2:-0.10986755 3:-0.3475 4:-0.099370942 5:0.53053415 6:0.24475326 7:0.28372499 8:0.23469506 9:0.1514525 10:0.39933336 11:0.16601336 12:0.25587451 13:0.25490001 14:0.099503942 15:-0.037391756 16:0.10476666 #
