SVM-light Version V6.20
0 # kernel type
3 # kernel parameter -d 
1 # kernel parameter -g 
1 # kernel parameter -s 
1 # kernel parameter -r 
empty# kernel parameter -u 
17 # highest feature index 
7 # number of training documents 
2 # number of support vectors plus 1 
0 # threshold b, each following line is a SV (starting with alpha*y)
1 1:0.29765898 2:0.11442118 3:0.10633287 4:-0.09801098 5:0.66235489 6:0.29200819 7:0.35970339 8:0.34952462 9:0.082113005 10:0.43604079 11:0.083642043 12:0.043646228 13:0.13802403 14:-0.018928988 15:-0.036107309 16:0.073640294 #
