SVM-light Version V6.20
0 # kernel type
3 # kernel parameter -d 
1 # kernel parameter -g 
1 # kernel parameter -s 
1 # kernel parameter -r 
empty# kernel parameter -u 
17 # highest feature index 
12 # number of training documents 
2 # number of support vectors plus 1 
0 # threshold b, each following line is a SV (starting with alpha*y)
1 1:0.22131191 2:-0.18080604 3:-0.25292867 4:-0.20714115 5:0.80552524 6:0.50932699 7:0.52769554 11:0.21532042 12:0.31101501 13:0.47374684 14:0.11278777 15:-0.12185638 16:0.14612439 #
