SVM-light Version V6.20
0 # kernel type
3 # kernel parameter -d 
1 # kernel parameter -g 
1 # kernel parameter -s 
1 # kernel parameter -r 
empty# kernel parameter -u 
14 # highest feature index 
7 # number of training documents 
2 # number of support vectors plus 1 
0 # threshold b, each following line is a SV (starting with alpha*y)
1 1:0.12010629 2:-0.15455967 3:-0.066284224 4:-0.089190796 5:0.43917477 6:0.28960073 7:0.38551286 8:0.21022984 9:0.11202037 10:0.45285767 11:0.13487099 12:0.24532223 13:0.26999152 #
